<?xml version="1.0" encoding="UTF-8"?>
<!-- This network was created in GeNIe Academic, which can be used for academic teaching and research purposes only -->
<smile version="1.0" id="student_genie" numsamples="10000" discsamples="10000">
	<nodes>
		<cpt id="age">
			<state id="State15" />
			<state id="State16" />
			<state id="State17" />
			<state id="State18" />
			<state id="State19" />
			<state id="State20" />
			<state id="State21" />
			<state id="State22" />
			<probabilities>0.1725731895223421 0.2727272727272728 0.275808936825886 0.2157164869029276 0.04930662557781202 0.009244992295839754 0.003081664098613251 0.001540832049306626</probabilities>
		</cpt>
		<cpt id="failures">
			<state id="State0" />
			<state id="State1" />
			<state id="State2" />
			<state id="State3" />
			<parents>age</parents>
			<probabilities>0.9579646017699115 0.03761061946902655 0.002212389380530973 0.002212389380530973 0.9096045197740112 0.06779661016949153 0.01694915254237288 0.005649717514124294 0.8547486033519553 0.106145251396648 0.00558659217877095 0.0335195530726257 0.7999999999999999 0.1357142857142857 0.04285714285714286 0.02142857142857143 0.40625 0.40625 0.09375 0.09375 0.3214285714285714 0.4642857142857142 0.1785714285714285 0.03571428571428571 0.08333333333333333 0.08333333333333333 0.75 0.08333333333333333 0.125 0.125 0.125 0.625</probabilities>
		</cpt>
		<cpt id="traveltime">
			<state id="State1" />
			<state id="State2" />
			<state id="State3" />
			<state id="State4" />
			<parents>failures</parents>
			<probabilities>0.5883424408014571 0.3169398907103825 0.06739526411657559 0.0273224043715847 0.4428571428571428 0.3571428571428572 0.1857142857142857 0.01428571428571429 0.4852941176470588 0.3676470588235294 0.1323529411764706 0.01470588235294118 0.2833333333333333 0.55 0.15 0.01666666666666667</probabilities>
		</cpt>
		<cpt id="address">
			<state id="R" />
			<state id="U" />
			<parents>traveltime</parents>
			<probabilities>0.1721311475409836 0.8278688524590164 0.4178403755868545 0.5821596244131455 0.6481481481481481 0.3518518518518519 0.625 0.375</probabilities>
		</cpt>
		<cpt id="Fedu">
			<state id="State0" />
			<state id="State1" />
			<state id="State2" />
			<state id="State3" />
			<state id="State4" />
			<parents>traveltime</parents>
			<probabilities>0.00273224043715847 0.1967213114754098 0.3278688524590164 0.2295081967213115 0.2431693989071038 0.02347417840375587 0.3286384976525822 0.3286384976525822 0.1877934272300469 0.1314553990610329 0.01851851851851852 0.4074074074074074 0.2962962962962963 0.1296296296296296 0.1481481481481481 0.01176470588235294 0.6000000000000001 0.1882352941176471 0.01176470588235294 0.1882352941176471</probabilities>
		</cpt>
		<cpt id="Medu">
			<state id="State0" />
			<state id="State1" />
			<state id="State2" />
			<state id="State3" />
			<state id="State4" />
			<parents>Fedu</parents>
			<probabilities>0.15 0.65 0.025 0.025 0.15 0.01149425287356322 0.5287356321839081 0.2988505747126436 0.1149425287356322 0.04597701149425287 0.01435406698564593 0.1722488038277512 0.4832535885167464 0.2009569377990431 0.1291866028708134 0.001515151515151515 0.06212121212121212 0.1909090909090909 0.4106060606060606 0.3348484848484849 0.001550387596899225 0.01705426356589147 0.06356589147286822 0.1798449612403101 0.7379844961240311</probabilities>
		</cpt>
		<cpt id="Mjob">
			<state id="at_home" />
			<state id="health" />
			<state id="other" />
			<state id="services" />
			<state id="teacher" />
			<parents>Medu</parents>
			<probabilities>0.4571428571428571 0.02857142857142857 0.4571428571428571 0.02857142857142857 0.02857142857142857 0.4666666666666667 0.01527777777777778 0.4736111111111111 0.04305555555555556 0.001388888888888889 0.2149732620320856 0.02780748663101604 0.509090909090909 0.2470588235294118 0.00106951871657754 0.1438848920863309 0.03597122302158273 0.4172661870503597 0.381294964028777 0.02158273381294964 0.02857142857142857 0.2057142857142857 0.1942857142857143 0.1771428571428571 0.3942857142857143</probabilities>
		</cpt>
		<cpt id="internet">
			<state id="no" />
			<state id="yes" />
			<parents>Mjob</parents>
			<probabilities>0.4296296296296296 0.5703703703703704 0.1041666666666667 0.8958333333333333 0.2674418604651163 0.7325581395348837 0.1102941176470588 0.8897058823529411 0.05555555555555555 0.9444444444444444</probabilities>
		</cpt>
		<cpt id="school">
			<state id="GP" />
			<state id="MS" />
			<parents>address internet</parents>
			<probabilities>0.3529411764705882 0.6470588235294118 0.4186046511627907 0.5813953488372093 0.5180722891566265 0.4819277108433735 0.8184281842818428 0.1815718157181572</probabilities>
		</cpt>
		<cpt id="freetime">
			<state id="State1" />
			<state id="State2" />
			<state id="State3" />
			<state id="State4" />
			<state id="State5" />
			<probabilities>0.06933744221879816 0.1648690292758089 0.386748844375963 0.2742681047765794 0.1047765793528505</probabilities>
		</cpt>
		<cpt id="goout">
			<state id="State1" />
			<state id="State2" />
			<state id="State3" />
			<state id="State4" />
			<state id="State5" />
			<parents>freetime</parents>
			<probabilities>0.1333333333333333 0.3555555555555556 0.3555555555555556 0.1333333333333333 0.02222222222222222 0.1588785046728972 0.3271028037383177 0.2803738317757009 0.1214953271028037 0.1121495327102804 0.05976095617529881 0.2430278884462151 0.4103585657370518 0.1832669322709163 0.1035856573705179 0.02247191011235955 0.1348314606741573 0.2865168539325842 0.3539325842696629 0.2022471910112359 0.08823529411764705 0.1323529411764706 0.07352941176470588 0.1911764705882353 0.5147058823529411</probabilities>
		</cpt>
		<cpt id="Walc">
			<state id="State1" />
			<state id="State2" />
			<state id="State3" />
			<state id="State4" />
			<state id="State5" />
			<parents>goout</parents>
			<probabilities>0.6875 0.1458333333333333 0.08333333333333333 0.0625 0.02083333333333333 0.5172413793103449 0.2689655172413793 0.1448275862068966 0.04827586206896552 0.02068965517241379 0.3707317073170732 0.2975609756097561 0.2195121951219512 0.08780487804878048 0.02439024390243903 0.3049645390070922 0.1773049645390071 0.2127659574468085 0.2340425531914894 0.07092198581560283 0.1818181818181818 0.1636363636363636 0.1818181818181818 0.2363636363636364 0.2363636363636364</probabilities>
		</cpt>
		<cpt id="sex">
			<state id="F" />
			<state id="M" />
			<parents>Walc</parents>
			<probabilities>0.7125506072874495 0.2874493927125506 0.66 0.34 0.5916666666666667 0.4083333333333333 0.3448275862068966 0.6551724137931034 0.1555555555555556 0.8444444444444444</probabilities>
		</cpt>
		<cpt id="guardian">
			<state id="father" />
			<state id="mother" />
			<state id="other" />
			<parents>age</parents>
			<probabilities>0.3125 0.6607142857142857 0.02678571428571428 0.2598870056497175 0.7231638418079096 0.01694915254237288 0.2458100558659218 0.7374301675977654 0.01675977653631285 0.1785714285714286 0.75 0.07142857142857142 0.09375 0.40625 0.5 0.04761904761904762 0.3333333333333333 0.619047619047619 0.1111111111111111 0.1111111111111111 0.7777777777777778 0.1666666666666667 0.6666666666666667 0.1666666666666667</probabilities>
		</cpt>
		<cpt id="Pstatus">
			<state id="A" />
			<state id="T" />
			<parents>guardian</parents>
			<probabilities>0.0392156862745098 0.9607843137254902 0.1384615384615385 0.8615384615384616 0.2682926829268293 0.7317073170731707</probabilities>
		</cpt>
		<cpt id="famsize">
			<state id="GT3" />
			<state id="LE3" />
			<parents>Pstatus</parents>
			<probabilities>0.4125 0.5875 0.7451669595782073 0.2548330404217926</probabilities>
		</cpt>
		<cpt id="Fjob">
			<state id="at_home" />
			<state id="health" />
			<state id="other" />
			<state id="services" />
			<state id="teacher" />
			<parents>Fedu</parents>
			<probabilities>0.15 0.025 0.775 0.025 0.025 0.09257142857142857 0.001142857142857143 0.6468571428571429 0.2525714285714286 0.006857142857142857 0.07714285714285715 0.01523809523809524 0.6247619047619047 0.2819047619047619 0.0009523809523809525 0.04580152671755725 0.02290076335877863 0.5572519083969465 0.366412213740458 0.007633587786259542 0.0234375 0.1328125 0.34375 0.234375 0.265625</probabilities>
		</cpt>
		<cpt id="reason">
			<state id="course" />
			<state id="home" />
			<state id="other" />
			<state id="reputation" />
			<parents>school</parents>
			<probabilities>0.3947990543735225 0.2718676122931442 0.06382978723404255 0.2695035460992908 0.5221238938053098 0.1504424778761062 0.1991150442477876 0.1283185840707965</probabilities>
		</cpt>
		<cpt id="higher">
			<state id="no" />
			<state id="yes" />
			<parents>failures</parents>
			<probabilities>0.06557377049180328 0.9344262295081968 0.2857142857142857 0.7142857142857143 0.4375 0.5625 0.4285714285714285 0.5714285714285714</probabilities>
		</cpt>
		<cpt id="studytime">
			<state id="State1" />
			<state id="State2" />
			<state id="State3" />
			<state id="State4" />
			<parents>sex higher</parents>
			<probabilities>0.5428571428571428 0.3142857142857143 0.1142857142857143 0.02857142857142857 0.2011494252873563 0.5373563218390804 0.2040229885057471 0.05747126436781609 0.7214285714285714 0.2357142857142857 0.007142857142857143 0.03571428571428571 0.4224137931034483 0.4267241379310345 0.09482758620689655 0.05603448275862069</probabilities>
		</cpt>
		<cpt id="schoolsup">
			<state id="no" />
			<state id="yes" />
			<parents>age</parents>
			<probabilities>0.7857142857142857 0.2142857142857143 0.8700564971751412 0.1299435028248588 0.9385474860335196 0.06145251396648045 0.9428571428571428 0.05714285714285714 0.96875 0.03125 0.8333333333333333 0.1666666666666667 0.8333333333333333 0.1666666666666667 0.75 0.25</probabilities>
		</cpt>
		<cpt id="famsup">
			<state id="no" />
			<state id="yes" />
			<probabilities>0.386748844375963 0.613251155624037</probabilities>
		</cpt>
		<cpt id="paid">
			<state id="no" />
			<state id="yes" />
			<parents>failures</parents>
			<probabilities>0.9471766848816029 0.05282331511839709 0.9 0.09999999999999999 0.9375 0.0625 0.8571428571428571 0.1428571428571428</probabilities>
		</cpt>
		<cpt id="activities">
			<state id="no" />
			<state id="yes" />
			<probabilities>0.514637904468413 0.4853620955315871</probabilities>
		</cpt>
		<cpt id="nursery">
			<state id="no" />
			<state id="yes" />
			<probabilities>0.1972265023112481 0.8027734976887519</probabilities>
		</cpt>
		<cpt id="romantic">
			<state id="no" />
			<state id="yes" />
			<probabilities>0.6317411402157165 0.3682588597842835</probabilities>
		</cpt>
		<cpt id="famrel">
			<state id="State1" />
			<state id="State2" />
			<state id="State3" />
			<state id="State4" />
			<state id="State5" />
			<probabilities>0.03389830508474576 0.04468412942989215 0.1556240369799692 0.4884437596302003 0.2773497688751926</probabilities>
		</cpt>
		<cpt id="Dalc">
			<state id="State1" />
			<state id="State2" />
			<state id="State3" />
			<state id="State4" />
			<state id="State5" />
			<parents>Walc</parents>
			<probabilities>0.9757085020242915 0.01214574898785425 0.004048582995951417 0.004048582995951417 0.004048582995951417 0.7533333333333334 0.2266666666666667 0.006666666666666667 0.006666666666666667 0.006666666666666667 0.5305785123966942 0.3570247933884297 0.07603305785123965 0.03471074380165289 0.001652892561983471 0.3204545454545454 0.3886363636363636 0.2295454545454545 0.05909090909090908 0.002272727272727273 0.1111111111111111 0.1555555555555556 0.2666666666666667 0.1333333333333333 0.3333333333333334</probabilities>
		</cpt>
		<cpt id="health">
			<state id="State1" />
			<state id="State2" />
			<state id="State3" />
			<state id="State4" />
			<state id="State5" />
			<probabilities>0.1386748844375963 0.1201848998459168 0.1910631741140216 0.1664098613251156 0.3836671802773498</probabilities>
		</cpt>
		<cpt id="absences">
			<state id="x_0_001__2_0_" />
			<state id="x2_0__4_0_" />
			<state id="x4_0__6_0_" />
			<state id="x6_0__32_0_" />
			<probabilities>0.563944530046225 0.1540832049306626 0.09399075500770417 0.1879815100154083</probabilities>
		</cpt>
		<cpt id="target_G1">
			<state id="State0" />
			<state id="State1" />
			<parents>school failures higher</parents>
			<probabilities>0.25 0.75 0.8111111111111111 0.1888888888888889 0.25 0.75 0.2380952380952381 0.7619047619047619 0.25 0.75 0.1666666666666667 0.8333333333333333 0.1 0.9 0.25 0.75 0.15 0.8500000000000001 0.5555555555555556 0.4444444444444445 0.03846153846153846 0.9615384615384616 0.103448275862069 0.896551724137931 0.125 0.875 0.125 0.875 0.1666666666666667 0.8333333333333333 0.1 0.9</probabilities>
		</cpt>
	</nodes>
	<extensions>
		<genie version="1.0" app="GeNIe 5.0.5310.0 ACADEMIC" name="student_genie">
			<node id="school">
				<name>school</name>
				<interior color="e5f6f7" />
				<outline color="000080" />
				<font color="000000" name="Arial" size="8" />
				<position>1302 252 1374 300</position>
			</node>
			<node id="sex">
				<name>sex</name>
				<interior color="e5f6f7" />
				<outline color="000080" />
				<font color="000000" name="Arial" size="8" />
				<position>761 526 833 574</position>
			</node>
			<node id="age">
				<name>age</name>
				<interior color="e5f6f7" />
				<outline color="000080" />
				<font color="000000" name="Arial" size="8" />
				<position>755 404 827 452</position>
			</node>
			<node id="address">
				<name>address</name>
				<interior color="e5f6f7" />
				<outline color="000080" />
				<font color="000000" name="Arial" size="8" />
				<position>1176 318 1248 366</position>
			</node>
			<node id="famsize">
				<name>famsize</name>
				<interior color="e5f6f7" />
				<outline color="000080" />
				<font color="000000" name="Arial" size="8" />
				<position>557 398 629 446</position>
			</node>
			<node id="Pstatus">
				<name>Pstatus</name>
				<interior color="e5f6f7" />
				<outline color="000080" />
				<font color="000000" name="Arial" size="8" />
				<position>647 460 719 508</position>
			</node>
			<node id="Medu">
				<name>Medu</name>
				<interior color="e5f6f7" />
				<outline color="000080" />
				<font color="000000" name="Arial" size="8" />
				<position>1015 161 1087 209</position>
			</node>
			<node id="Fedu">
				<name>Fedu</name>
				<interior color="e5f6f7" />
				<outline color="000080" />
				<font color="000000" name="Arial" size="8" />
				<position>1013 88 1085 136</position>
			</node>
			<node id="Mjob">
				<name>Mjob</name>
				<interior color="e5f6f7" />
				<outline color="000080" />
				<font color="000000" name="Arial" size="8" />
				<position>1020 245 1092 293</position>
			</node>
			<node id="Fjob">
				<name>Fjob</name>
				<interior color="e5f6f7" />
				<outline color="000080" />
				<font color="000000" name="Arial" size="8" />
				<position>1014 16 1086 64</position>
			</node>
			<node id="reason">
				<name>reason</name>
				<interior color="e5f6f7" />
				<outline color="000080" />
				<font color="000000" name="Arial" size="8" />
				<position>1293 92 1365 140</position>
			</node>
			<node id="guardian">
				<name>guardian</name>
				<interior color="e5f6f7" />
				<outline color="000080" />
				<font color="000000" name="Arial" size="8" />
				<position>846 463 918 511</position>
			</node>
			<node id="traveltime">
				<name>traveltime</name>
				<interior color="e5f6f7" />
				<outline color="000080" />
				<font color="000000" name="Arial" size="8" />
				<position>752 305 824 353</position>
			</node>
			<node id="studytime">
				<name>studytime</name>
				<interior color="e5f6f7" />
				<outline color="000080" />
				<font color="000000" name="Arial" size="8" />
				<position>1196 527 1268 575</position>
			</node>
			<node id="failures">
				<name>failures</name>
				<interior color="e5f6f7" />
				<outline color="000080" />
				<font color="000000" name="Arial" size="8" />
				<position>1312 377 1384 425</position>
			</node>
			<node id="schoolsup">
				<name>schoolsup</name>
				<interior color="e5f6f7" />
				<outline color="000080" />
				<font color="000000" name="Arial" size="8" />
				<position>620 336 692 384</position>
			</node>
			<node id="famsup">
				<name>famsup</name>
				<interior color="e5f6f7" />
				<outline color="000080" />
				<font color="000000" name="Arial" size="8" />
				<position>10 72 82 120</position>
			</node>
			<node id="paid">
				<name>paid</name>
				<interior color="e5f6f7" />
				<outline color="000080" />
				<font color="000000" name="Arial" size="8" />
				<position>1253 472 1325 520</position>
			</node>
			<node id="activities">
				<name>activities</name>
				<interior color="e5f6f7" />
				<outline color="000080" />
				<font color="000000" name="Arial" size="8" />
				<position>10 134 82 182</position>
			</node>
			<node id="nursery">
				<name>nursery</name>
				<interior color="e5f6f7" />
				<outline color="000080" />
				<font color="000000" name="Arial" size="8" />
				<position>10 196 82 244</position>
			</node>
			<node id="higher">
				<name>higher</name>
				<interior color="e5f6f7" />
				<outline color="000080" />
				<font color="000000" name="Arial" size="8" />
				<position>1317 525 1389 573</position>
			</node>
			<node id="internet">
				<name>internet</name>
				<interior color="e5f6f7" />
				<outline color="000080" />
				<font color="000000" name="Arial" size="8" />
				<position>1160 244 1232 292</position>
			</node>
			<node id="romantic">
				<name>romantic</name>
				<interior color="e5f6f7" />
				<outline color="000080" />
				<font color="000000" name="Arial" size="8" />
				<position>10 258 82 306</position>
			</node>
			<node id="famrel">
				<name>famrel</name>
				<interior color="e5f6f7" />
				<outline color="000080" />
				<font color="000000" name="Arial" size="8" />
				<position>10 320 82 368</position>
			</node>
			<node id="freetime">
				<name>freetime</name>
				<interior color="e5f6f7" />
				<outline color="000080" />
				<font color="000000" name="Arial" size="8" />
				<position>284 536 356 584</position>
			</node>
			<node id="goout">
				<name>goout</name>
				<interior color="e5f6f7" />
				<outline color="000080" />
				<font color="000000" name="Arial" size="8" />
				<position>394 534 466 582</position>
			</node>
			<node id="Dalc">
				<name>Dalc</name>
				<interior color="e5f6f7" />
				<outline color="000080" />
				<font color="000000" name="Arial" size="8" />
				<position>563 599 635 647</position>
			</node>
			<node id="Walc">
				<name>Walc</name>
				<interior color="e5f6f7" />
				<outline color="000080" />
				<font color="000000" name="Arial" size="8" />
				<position>549 522 621 570</position>
			</node>
			<node id="health">
				<name>health</name>
				<interior color="e5f6f7" />
				<outline color="000080" />
				<font color="000000" name="Arial" size="8" />
				<position>10 444 82 492</position>
			</node>
			<node id="absences">
				<name>absences</name>
				<interior color="e5f6f7" />
				<outline color="000080" />
				<font color="000000" name="Arial" size="8" />
				<position>10 506 82 554</position>
			</node>
			<node id="target_G1">
				<name>target_G1</name>
				<interior color="e5f6f7" />
				<outline color="000080" />
				<font color="000000" name="Arial" size="8" />
				<position>1506 377 1578 425</position>
			</node>
			<textbox>
				<caption>Input file: student_genie.csv\nData rows: 649\nElapsed time: 4.687s\n\nLearning algorithm: Bayesian Search\nAlgorithm parameters:\nIterations: 20\nMax parent count: 8\nSample size: 50\nLink probability: 0.1\nPrior link probability: 0.001\nSeed: 0\nMax search time: 0\nBackground knowledge was provided:\n  forced arcs: 3\n  nodes assigned to tiers: 1\n\nBest score in iteration 5: -18198.6\nEM Log Likelihood: -17243.8</caption>
				<font color="000000" name="Arial" size="8" />
				<position>10 574 197 840</position>
			</textbox>
		</genie>
	</extensions>
</smile>
