<?xml version="1.0" encoding="UTF-8"?>
<!-- This network was created in GeNIe Academic, which can be used for academic teaching and research purposes only -->
<smile version="1.0" id="student_raw" numsamples="10000" discsamples="10000">
	<nodes>
		<cpt id="address">
			<state id="R" />
			<state id="U" />
			<probabilities>0.3035439137134052 0.6964560862865948</probabilities>
		</cpt>
		<cpt id="school">
			<state id="GP" />
			<state id="MS" />
			<parents>address</parents>
			<probabilities>0.3959390862944162 0.6040609137055837 0.7632743362831859 0.2367256637168142</probabilities>
		</cpt>
		<cpt id="guardian">
			<state id="father" />
			<state id="mother" />
			<state id="other" />
			<probabilities>0.2357473035439137 0.7010785824345147 0.06317411402157165</probabilities>
		</cpt>
		<cpt id="failures">
			<state id="State0" />
			<state id="State1" />
			<state id="State2" />
			<state id="State3" />
			<parents>guardian</parents>
			<probabilities>0.8782467532467533 0.1055194805194805 0.001623376623376623 0.01461038961038961 0.865934065934066 0.09010989010989011 0.02197802197802198 0.02197802197802198 0.4878048780487805 0.3170731707317073 0.1463414634146342 0.04878048780487805</probabilities>
		</cpt>
		<cpt id="Dalc">
			<state id="State1" />
			<state id="State2" />
			<state id="State3" />
			<state id="State4" />
			<state id="State5" />
			<parents>failures</parents>
			<probabilities>0.7140255009107468 0.185792349726776 0.05646630236794171 0.02003642987249545 0.02367941712204007 0.5571428571428572 0.2142857142857143 0.1285714285714286 0.08571428571428572 0.01428571428571429 0.6000000000000001 0.1882352941176471 0.1294117647058824 0.01176470588235294 0.07058823529411766 0.68 0.08000000000000002 0.08000000000000002 0.01333333333333334 0.1466666666666667</probabilities>
		</cpt>
		<cpt id="Walc">
			<state id="State1" />
			<state id="State2" />
			<state id="State3" />
			<state id="State4" />
			<state id="State5" />
			<parents>Dalc</parents>
			<probabilities>0.5343680709534369 0.2505543237250554 0.1419068736141907 0.06208425720620843 0.01108647450110865 0.02479338842975207 0.2809917355371901 0.3553719008264463 0.2809917355371901 0.05785123966942149 0.02325581395348837 0.02325581395348837 0.2093023255813953 0.4651162790697674 0.2790697674418605 0.05882352941176471 0.05882352941176471 0.2352941176470588 0.2941176470588235 0.3529411764705882 0.06666666666666667 0.06666666666666667 0.01111111111111111 0.01111111111111111 0.8444444444444443</probabilities>
		</cpt>
		<cpt id="sex">
			<state id="F" />
			<state id="M" />
			<parents>school Walc</parents>
			<probabilities>0.6488095238095237 0.3511904761904762 0.5824175824175825 0.4175824175824176 0.6623376623376623 0.3376623376623377 0.3333333333333333 0.6666666666666666 0.1666666666666667 0.8333333333333334 0.8481012658227848 0.1518987341772152 0.7796610169491526 0.2203389830508475 0.4651162790697674 0.5348837209302325 0.3666666666666666 0.6333333333333333 0.1333333333333333 0.8666666666666667</probabilities>
		</cpt>
		<cpt id="schoolsup">
			<state id="no" />
			<state id="yes" />
			<probabilities>0.8952234206471494 0.1047765793528505</probabilities>
		</cpt>
		<cpt id="age">
			<state id="s1_below_16" />
			<state id="s2_16_17" />
			<state id="s3_17_up" />
			<parents>schoolsup</parents>
			<probabilities>0.1514629948364888 0.2650602409638554 0.5834767641996558 0.3529411764705882 0.3382352941176471 0.3088235294117647</probabilities>
		</cpt>
		<cpt id="Pstatus">
			<state id="A" />
			<state id="T" />
			<parents>failures</parents>
			<probabilities>0.1238615664845173 0.8761384335154827 0.08571428571428572 0.9142857142857143 0.3125 0.6875 0.07142857142857142 0.9285714285714285</probabilities>
		</cpt>
		<cpt id="famsize">
			<state id="GT3" />
			<state id="LE3" />
			<parents>Pstatus</parents>
			<probabilities>0.4125 0.5875 0.7451669595782073 0.2548330404217926</probabilities>
		</cpt>
		<cpt id="internet">
			<state id="no" />
			<state id="yes" />
			<parents>school</parents>
			<probabilities>0.1583924349881797 0.8416075650118203 0.3716814159292036 0.6283185840707964</probabilities>
		</cpt>
		<cpt id="Medu">
			<state id="State0" />
			<state id="State1" />
			<state id="State2" />
			<state id="State3" />
			<state id="State4" />
			<parents>failures internet</parents>
			<probabilities>0.01652892561983471 0.3636363636363636 0.3223140495867769 0.1735537190082645 0.1239669421487603 0.007009345794392522 0.1378504672897196 0.2780373831775701 0.2196261682242991 0.3574766355140186 0.01111111111111111 0.4555555555555556 0.3444444444444445 0.1222222222222223 0.06666666666666668 0.003703703703703704 0.3740740740740741 0.3185185185185185 0.2259259259259259 0.07777777777777778 0.15 0.4 0.025 0.4 0.025 0.02 0.52 0.12 0.22 0.12 0.02857142857142857 0.6 0.02857142857142857 0.3142857142857143 0.02857142857142857 0.02222222222222222 0.02222222222222222 0.4666666666666667 0.3555555555555556 0.1333333333333333</probabilities>
		</cpt>
		<cpt id="Fedu">
			<state id="State0" />
			<state id="State1" />
			<state id="State2" />
			<state id="State3" />
			<state id="State4" />
			<parents>Medu</parents>
			<probabilities>0.1714285714285714 0.3142857142857143 0.4571428571428571 0.02857142857142857 0.02857142857142857 0.03496503496503497 0.6433566433566433 0.2517482517482518 0.05594405594405594 0.01398601398601399 0.00106951871657754 0.2791443850267379 0.5411764705882353 0.13475935828877 0.04385026737967914 0.001428571428571429 0.1442857142857143 0.3014285714285714 0.3871428571428572 0.1657142857142857 0.005714285714285714 0.04571428571428571 0.1542857142857143 0.2514285714285714 0.5428571428571428</probabilities>
		</cpt>
		<cpt id="Mjob">
			<state id="at_home" />
			<state id="health" />
			<state id="other" />
			<state id="services" />
			<state id="teacher" />
			<parents>Medu</parents>
			<probabilities>0.4571428571428571 0.02857142857142857 0.4571428571428571 0.02857142857142857 0.02857142857142857 0.4666666666666667 0.01527777777777778 0.4736111111111111 0.04305555555555556 0.001388888888888889 0.2149732620320856 0.02780748663101604 0.509090909090909 0.2470588235294118 0.00106951871657754 0.1438848920863309 0.03597122302158273 0.4172661870503597 0.381294964028777 0.02158273381294964 0.02857142857142857 0.2057142857142857 0.1942857142857143 0.1771428571428571 0.3942857142857143</probabilities>
		</cpt>
		<cpt id="Fjob">
			<state id="at_home" />
			<state id="health" />
			<state id="other" />
			<state id="services" />
			<state id="teacher" />
			<parents>Fedu</parents>
			<probabilities>0.15 0.025 0.775 0.025 0.025 0.09257142857142857 0.001142857142857143 0.6468571428571429 0.2525714285714286 0.006857142857142857 0.07714285714285715 0.01523809523809524 0.6247619047619047 0.2819047619047619 0.0009523809523809525 0.04580152671755725 0.02290076335877863 0.5572519083969465 0.366412213740458 0.007633587786259542 0.0234375 0.1328125 0.34375 0.234375 0.265625</probabilities>
		</cpt>
		<cpt id="reason">
			<state id="course" />
			<state id="home" />
			<state id="other" />
			<state id="reputation" />
			<parents>school</parents>
			<probabilities>0.3947990543735225 0.2718676122931442 0.06382978723404255 0.2695035460992908 0.5221238938053098 0.1504424778761062 0.1991150442477876 0.1283185840707965</probabilities>
		</cpt>
		<cpt id="traveltime">
			<state id="State1" />
			<state id="State2" />
			<state id="State3" />
			<state id="State4" />
			<parents>school</parents>
			<probabilities>0.6690307328605201 0.2576832151300236 0.04728132387706856 0.02600472813238771 0.3672566371681416 0.4601769911504425 0.1504424778761062 0.02212389380530973</probabilities>
		</cpt>
		<cpt id="studytime">
			<state id="State1" />
			<state id="State2" />
			<state id="State3" />
			<state id="State4" />
			<parents>sex</parents>
			<probabilities>0.2323759791122715 0.5169712793733682 0.195822454308094 0.05483028720626632 0.4624060150375939 0.4022556390977443 0.08270676691729323 0.05263157894736842</probabilities>
		</cpt>
		<cpt id="famsup">
			<state id="no" />
			<state id="yes" />
			<probabilities>0.386748844375963 0.613251155624037</probabilities>
		</cpt>
		<cpt id="paid">
			<state id="no" />
			<state id="yes" />
			<parents>failures</parents>
			<probabilities>0.9471766848816029 0.05282331511839709 0.9 0.09999999999999999 0.9375 0.0625 0.8571428571428571 0.1428571428571428</probabilities>
		</cpt>
		<cpt id="activities">
			<state id="no" />
			<state id="yes" />
			<probabilities>0.514637904468413 0.4853620955315871</probabilities>
		</cpt>
		<cpt id="nursery">
			<state id="no" />
			<state id="yes" />
			<probabilities>0.1972265023112481 0.8027734976887519</probabilities>
		</cpt>
		<cpt id="higher">
			<state id="no" />
			<state id="yes" />
			<parents>failures</parents>
			<probabilities>0.06557377049180328 0.9344262295081968 0.2857142857142857 0.7142857142857143 0.4375 0.5625 0.4285714285714285 0.5714285714285714</probabilities>
		</cpt>
		<cpt id="romantic">
			<state id="no" />
			<state id="yes" />
			<probabilities>0.6317411402157165 0.3682588597842835</probabilities>
		</cpt>
		<cpt id="famrel">
			<state id="State1" />
			<state id="State2" />
			<state id="State3" />
			<state id="State4" />
			<state id="State5" />
			<probabilities>0.03389830508474576 0.04468412942989215 0.1556240369799692 0.4884437596302003 0.2773497688751926</probabilities>
		</cpt>
		<cpt id="goout">
			<state id="State1" />
			<state id="State2" />
			<state id="State3" />
			<state id="State4" />
			<state id="State5" />
			<parents>Walc</parents>
			<probabilities>0.1336032388663968 0.3036437246963563 0.3076923076923077 0.1740890688259109 0.08097165991902834 0.04666666666666667 0.26 0.4066666666666667 0.1666666666666667 0.12 0.03333333333333333 0.175 0.375 0.25 0.1666666666666667 0.03448275862068965 0.08045977011494253 0.2068965517241379 0.3793103448275862 0.2988505747126436 0.02222222222222222 0.06666666666666667 0.1111111111111111 0.2222222222222222 0.5777777777777778</probabilities>
		</cpt>
		<cpt id="freetime">
			<state id="State1" />
			<state id="State2" />
			<state id="State3" />
			<state id="State4" />
			<state id="State5" />
			<parents>goout</parents>
			<probabilities>0.125 0.3541666666666666 0.3125 0.08333333333333333 0.125 0.1103448275862069 0.2413793103448276 0.4206896551724138 0.1655172413793103 0.06206896551724138 0.07804878048780488 0.1463414634146341 0.5024390243902439 0.248780487804878 0.02439024390243903 0.0425531914893617 0.09219858156028368 0.326241134751773 0.4468085106382979 0.09219858156028368 0.00909090909090909 0.1090909090909091 0.2363636363636364 0.3272727272727273 0.3181818181818182</probabilities>
		</cpt>
		<cpt id="health">
			<state id="State1" />
			<state id="State2" />
			<state id="State3" />
			<state id="State4" />
			<state id="State5" />
			<probabilities>0.1386748844375963 0.1201848998459168 0.1910631741140216 0.1664098613251156 0.3836671802773498</probabilities>
		</cpt>
		<cpt id="absences">
			<state id="s2_0_2" />
			<state id="s3_2_4" />
			<state id="s4_4_6" />
			<state id="s5_6_up" />
			<probabilities>0.3944530046224962 0.1802773497688752 0.1617873651771957 0.263482280431433</probabilities>
		</cpt>
		<cpt id="target_G1">
			<state id="State0" />
			<state id="State1" />
			<parents>school failures higher</parents>
			<probabilities>0.25 0.75 0.8111111111111111 0.1888888888888889 0.25 0.75 0.2380952380952381 0.7619047619047619 0.25 0.75 0.1666666666666667 0.8333333333333333 0.1 0.9 0.25 0.75 0.15 0.8500000000000001 0.5555555555555556 0.4444444444444445 0.03846153846153846 0.9615384615384616 0.103448275862069 0.896551724137931 0.125 0.875 0.125 0.875 0.1666666666666667 0.8333333333333333 0.1 0.9</probabilities>
		</cpt>
	</nodes>
	<extensions>
		<genie version="1.0" app="GeNIe 5.0.5310.0 ACADEMIC" name="student_raw">
			<node id="school">
				<name>school</name>
				<interior color="e5f6f7" />
				<outline color="000080" />
				<font color="000000" name="Arial" size="8" />
				<position>1234 176 1306 224</position>
			</node>
			<node id="sex">
				<name>sex</name>
				<interior color="e5f6f7" />
				<outline color="000080" />
				<font color="000000" name="Arial" size="8" />
				<position>782 307 854 355</position>
			</node>
			<node id="age">
				<name>age</name>
				<interior color="e5f6f7" />
				<outline color="000080" />
				<font color="000000" name="Arial" size="8" />
				<position>140 156 212 204</position>
			</node>
			<node id="address">
				<name>address</name>
				<interior color="e5f6f7" />
				<outline color="000080" />
				<font color="000000" name="Arial" size="8" />
				<position>1137 137 1209 185</position>
			</node>
			<node id="famsize">
				<name>famsize</name>
				<interior color="e5f6f7" />
				<outline color="000080" />
				<font color="000000" name="Arial" size="8" />
				<position>677 558 749 606</position>
			</node>
			<node id="Pstatus">
				<name>Pstatus</name>
				<interior color="e5f6f7" />
				<outline color="000080" />
				<font color="000000" name="Arial" size="8" />
				<position>771 469 843 517</position>
			</node>
			<node id="Medu">
				<name>Medu</name>
				<interior color="e5f6f7" />
				<outline color="000080" />
				<font color="000000" name="Arial" size="8" />
				<position>1100 22 1172 70</position>
			</node>
			<node id="Fedu">
				<name>Fedu</name>
				<interior color="e5f6f7" />
				<outline color="000080" />
				<font color="000000" name="Arial" size="8" />
				<position>1249 16 1321 64</position>
			</node>
			<node id="Mjob">
				<name>Mjob</name>
				<interior color="e5f6f7" />
				<outline color="000080" />
				<font color="000000" name="Arial" size="8" />
				<position>910 13 982 61</position>
			</node>
			<node id="Fjob">
				<name>Fjob</name>
				<interior color="e5f6f7" />
				<outline color="000080" />
				<font color="000000" name="Arial" size="8" />
				<position>1387 15 1459 63</position>
			</node>
			<node id="reason">
				<name>reason</name>
				<interior color="e5f6f7" />
				<outline color="000080" />
				<font color="000000" name="Arial" size="8" />
				<position>1359 131 1431 179</position>
			</node>
			<node id="guardian">
				<name>guardian</name>
				<interior color="e5f6f7" />
				<outline color="000080" />
				<font color="000000" name="Arial" size="8" />
				<position>819 150 891 198</position>
			</node>
			<node id="traveltime">
				<name>traveltime</name>
				<interior color="e5f6f7" />
				<outline color="000080" />
				<font color="000000" name="Arial" size="8" />
				<position>1372 191 1444 239</position>
			</node>
			<node id="studytime">
				<name>studytime</name>
				<interior color="e5f6f7" />
				<outline color="000080" />
				<font color="000000" name="Arial" size="8" />
				<position>352 493 424 541</position>
			</node>
			<node id="failures">
				<name>failures</name>
				<interior color="e5f6f7" />
				<outline color="000080" />
				<font color="000000" name="Arial" size="8" />
				<position>1085 278 1157 326</position>
			</node>
			<node id="schoolsup">
				<name>schoolsup</name>
				<interior color="e5f6f7" />
				<outline color="000080" />
				<font color="000000" name="Arial" size="8" />
				<position>10 134 82 182</position>
			</node>
			<node id="famsup">
				<name>famsup</name>
				<interior color="e5f6f7" />
				<outline color="000080" />
				<font color="000000" name="Arial" size="8" />
				<position>10 196 82 244</position>
			</node>
			<node id="paid">
				<name>paid</name>
				<interior color="e5f6f7" />
				<outline color="000080" />
				<font color="000000" name="Arial" size="8" />
				<position>1391 243 1463 291</position>
			</node>
			<node id="activities">
				<name>activities</name>
				<interior color="e5f6f7" />
				<outline color="000080" />
				<font color="000000" name="Arial" size="8" />
				<position>10 258 82 306</position>
			</node>
			<node id="nursery">
				<name>nursery</name>
				<interior color="e5f6f7" />
				<outline color="000080" />
				<font color="000000" name="Arial" size="8" />
				<position>10 320 82 368</position>
			</node>
			<node id="higher">
				<name>higher</name>
				<interior color="e5f6f7" />
				<outline color="000080" />
				<font color="000000" name="Arial" size="8" />
				<position>1168 405 1240 453</position>
			</node>
			<node id="internet">
				<name>internet</name>
				<interior color="e5f6f7" />
				<outline color="000080" />
				<font color="000000" name="Arial" size="8" />
				<position>1228 87 1300 135</position>
			</node>
			<node id="romantic">
				<name>romantic</name>
				<interior color="e5f6f7" />
				<outline color="000080" />
				<font color="000000" name="Arial" size="8" />
				<position>10 382 82 430</position>
			</node>
			<node id="famrel">
				<name>famrel</name>
				<interior color="e5f6f7" />
				<outline color="000080" />
				<font color="000000" name="Arial" size="8" />
				<position>10 444 82 492</position>
			</node>
			<node id="freetime">
				<name>freetime</name>
				<interior color="e5f6f7" />
				<outline color="000080" />
				<font color="000000" name="Arial" size="8" />
				<position>862 803 934 851</position>
			</node>
			<node id="goout">
				<name>goout</name>
				<interior color="e5f6f7" />
				<outline color="000080" />
				<font color="000000" name="Arial" size="8" />
				<position>873 699 945 747</position>
			</node>
			<node id="Dalc">
				<name>Dalc</name>
				<interior color="e5f6f7" />
				<outline color="000080" />
				<font color="000000" name="Arial" size="8" />
				<position>1057 422 1129 470</position>
			</node>
			<node id="Walc">
				<name>Walc</name>
				<interior color="e5f6f7" />
				<outline color="000080" />
				<font color="000000" name="Arial" size="8" />
				<position>865 597 937 645</position>
			</node>
			<node id="health">
				<name>health</name>
				<interior color="e5f6f7" />
				<outline color="000080" />
				<font color="000000" name="Arial" size="8" />
				<position>10 506 82 554</position>
			</node>
			<node id="absences">
				<name>absences</name>
				<interior color="e5f6f7" />
				<outline color="000080" />
				<font color="000000" name="Arial" size="8" />
				<position>10 568 82 616</position>
			</node>
			<node id="target_G1">
				<name>target_G1</name>
				<interior color="e5f6f7" />
				<outline color="000080" />
				<font color="000000" name="Arial" size="8" />
				<position>1504 342 1576 390</position>
			</node>
			<textbox>
				<caption>Input file: student_raw.csv\nData rows: 649\nElapsed time: 2.406s\n\nLearning algorithm: Bayesian Search\nAlgorithm parameters:\nIterations: 20\nMax parent count: 8\nSample size: 50\nLink probability: 0.1\nPrior link probability: 0.001\nSeed: 0\nMax search time: 0\nBackground knowledge was provided:\n  forced arcs: 3\n  nodes assigned to tiers: 1\n\nBest score in iteration 0: -17917.9\nEM Log Likelihood: -17075.4</caption>
				<font color="000000" name="Arial" size="8" />
				<position>10 636 197 902</position>
			</textbox>
		</genie>
	</extensions>
</smile>
